digraph Tree {
node [shape=box, style="filled, rounded", color="black", fontname="helvetica"] ;
edge [fontname="helvetica"] ;
0 [label=<precio &le; 27.5<br/>gini = 0.5<br/>samples = 8<br/>value = [4, 4]<br/>class = 1>, fillcolor="#ffffff"] ;
1 [label=<rating &le; 8.65<br/>gini = 0.444<br/>samples = 6<br/>value = [2, 4]<br/>class = 0>, fillcolor="#9ccef2"] ;
0 -> 1 [labeldistance=2.5, labelangle=45, headlabel="True"] ;
2 [label=<productora &le; 5.0<br/>gini = 0.444<br/>samples = 3<br/>value = [2, 1]<br/>class = 1>, fillcolor="#f2c09c"] ;
1 -> 2 ;
3 [label=<gini = 0.5<br/>samples = 2<br/>value = [1, 1]<br/>class = 1>, fillcolor="#ffffff"] ;
2 -> 3 ;
4 [label=<gini = 0.0<br/>samples = 1<br/>value = [1, 0]<br/>class = 1>, fillcolor="#e58139"] ;
2 -> 4 ;
5 [label=<gini = 0.0<br/>samples = 3<br/>value = [0, 3]<br/>class = 0>, fillcolor="#399de5"] ;
1 -> 5 ;
6 [label=<gini = 0.0<br/>samples = 2<br/>value = [2, 0]<br/>class = 1>, fillcolor="#e58139"] ;
0 -> 6 [labeldistance=2.5, labelangle=-45, headlabel="False"] ;
}
